<?xml version="1.0"?>
<opencv_storage>
<opencv_ml_boost>
  <format>3</format>
  <is_classifier>1</is_classifier>
  <var_all>100</var_all>
  <var_count>99</var_count>
  <ord_var_count>99</ord_var_count>
  <cat_var_count>1</cat_var_count>
  <training_params>
    <boosting_type>LogitBoost</boosting_type>
    <use_surrogates>0</use_surrogates>
    <max_categories>10</max_categories>
    <regression_accuracy>9.9999997764825821e-003</regression_accuracy>
    <max_depth>4</max_depth>
    <min_sample_count>20</min_sample_count>
    <cross_validation_folds>0</cross_validation_folds>
    <weight_trimming_rate>9.4999999999999996e-001</weight_trimming_rate></training_params>
  <global_var_idx>1</global_var_idx>
  <var_idx>
    0 1 2 3 4 5 6 7 8 9 10 11 12 13 14 15 16 17 18 19 20 21 22 23 24 25
    26 27 28 29 30 31 32 33 34 35 36 37 38 39 40 41 42 43 44 45 46 47 48
    49 50 51 52 53 54 55 56 57 58 59 60 61 62 63 64 65 66 67 68 69 70 71
    72 73 74 75 76 77 78 79 80 81 82 83 84 85 86 87 88 89 90 91 92 93 94
    95 96 97 98</var_idx>
  <var_type>
    0 0 0 0 0 0 0 0 0 0 0 0 0 0 0 0 0 0 0 0 0 0 0 0 0 0 0 0 0 0 0 0 0 0
    0 0 0 0 0 0 0 0 0 0 0 0 0 0 0 0 0 0 0 0 0 0 0 0 0 0 0 0 0 0 0 0 0 0
    0 0 0 0 0 0 0 0 0 0 0 0 0 0 0 0 0 0 0 0 0 0 0 0 0 0 0 0 0 0 0 1</var_type>
  <cat_ofs>
    0 0 0 0 0 0 0 0 0 0 0 0 0 0 0 0 0 0 0 0 0 0 0 0 0 0 0 0 0 0 0 0 0 0
    0 0 0 0 0 0 0 0 0 0 0 0 0 0 0 0 0 0 0 0 0 0 0 0 0 0 0 0 0 0 0 0 0 0
    0 0 0 0 0 0 0 0 0 0 0 0 0 0 0 0 0 0 0 0 0 0 0 0 0 0 0 0 0 0 0 0 0 0
    0 0 0 0 0 0 0 0 0 0 0 0 0 0 0 0 0 0 0 0 0 0 0 0 0 0 0 0 0 0 0 0 0 0
    0 0 0 0 0 0 0 0 0 0 0 0 0 0 0 0 0 0 0 0 0 0 0 0 0 0 0 0 0 0 0 0 0 0
    0 0 0 0 0 0 0 0 0 0 0 0 0 0 0 0 0 0 0 0 0 0 0 0 0 0 0 0</cat_ofs>
  <class_labels>
    -1 1</class_labels>
  <missing_subst>
    0. 0. 0. 0. 0. 0. 0. 0. 0. 0. 0. 0. 0. 0. 0. 0. 0. 0. 0. 0. 0. 0. 0.
    0. 0. 0. 0. 0. 0. 0. 0. 0. 0. 0. 0. 0. 0. 0. 0. 0. 0. 0. 0. 0. 0. 0.
    0. 0. 0. 0. 0. 0. 0. 0. 0. 0. 0. 0. 0. 0. 0. 0. 0. 0. 0. 0. 0. 0. 0.
    0. 0. 0. 0. 0. 0. 0. 0. 0. 0. 0. 0. 0. 0. 0. 0. 0. 0. 0. 0. 0. 0. 0.
    0. 0. 0. 0. 0. 0. 0. 0.</missing_subst>
  <ntrees>168</ntrees>
  <trees>
    <_>
      <nodes>
        <_>
          <depth>0</depth>
          <value>4.1481304127102597e-001</value>
          <splits>
            <_><var>0</var>
              <quality>1.9971048831939697e+000</quality>
              <le>8.5635826110839844e+001</le></_></splits></_>
        <_>
          <depth>1</depth>
          <value>-1.2415625502040251e+000</value>
          <splits>
            <_><var>23</var>
              <quality>7.8116166591644287e-001</quality>
              <le>8.0890350341796875e+001</le></_></splits></_>
        <_>
          <depth>2</depth>
          <value>-1.5565547431833096e+000</value>
          <splits>
            <_><var>0</var>
              <quality>8.3369189500808716e-001</quality>
              <le>6.8064956665039063e+001</le></_></splits></_>
        <_>
          <depth>3</depth>
          <value>-1.7652268708057359e+000</value>
          <splits>
            <_><var>79</var>
              <quality>8.1004494428634644e-001</quality>
              <le>1.2403947448730469e+002</le></_></splits></_>
        <_>
          <depth>4</depth>
          <value>-1.8200475801581688e+000</value></_>
        <_>
          <depth>4</depth>
          <value>-5.9736330235573543e-001</value></_>
        <_>
          <depth>3</depth>
          <value>-7.6927576499919459e-001</value>
          <splits>
            <_><var>82</var>
              <quality>8.3345711231231689e-002</quality>
              <le>7.7926467895507813e+001</le></_></splits></_>
        <_>
          <depth>4</depth>
          <value>-1.6739952620423089e+000</value></_>
        <_>
          <depth>4</depth>
          <value>-5.8932941752352717e-002</value></_>
        <_>
          <depth>2</depth>
          <value>7.2776667998445121e-002</value>
          <splits>
            <_><var>73</var>
              <quality>5.4170809686183929e-002</quality>
              <le>9.9489135742187500e+001</le></_></splits></_>
        <_>
          <depth>3</depth>
          <value>-6.5696395329211632e-001</value>
          <splits>
            <_><var>25</var>
              <quality>3.2047461718320847e-002</quality>
              <le>5.8740905761718750e+001</le></_></splits></_>
        <_>
          <depth>4</depth>
          <value>-1.3193259829415429e+000</value></_>
        <_>
          <depth>4</depth>
          <value>-2.0282413350449149e-001</value></_>
        <_>
          <depth>3</depth>
          <value>1.0267320526531167e+000</value>
          <splits>
            <_><var>96</var>
              <quality>4.5765493065118790e-002</quality>
              <le>1.1016270446777344e+002</le></_></splits></_>
        <_>
          <depth>4</depth>
          <value>9.1481326059584964e-002</value></_>
        <_>
          <depth>4</depth>
          <value>1.3615061085519722e+000</value></_>
        <_>
          <depth>1</depth>
          <value>1.5166374493261234e+000</value>
          <splits>
            <_><var>0</var>
              <quality>1.4798789024353027e+000</quality>
              <le>1.1050984191894531e+002</le></_></splits></_>
        <_>
          <depth>2</depth>
          <value>7.7936119677952365e-001</value>
          <splits>
            <_><var>96</var>
              <quality>1.6647459566593170e-001</quality>
              <le>1.1148016357421875e+002</le></_></splits></_>
        <_>
          <depth>3</depth>
          <value>-1.9550197078622200e-001</value>
          <splits>
            <_><var>40</var>
              <quality>4.8091109842061996e-002</quality>
              <le>8.7972229003906250e+001</le></_></splits></_>
        <_>
          <depth>4</depth>
          <value>-8.5133118122837748e-001</value></_>
        <_>
          <depth>4</depth>
          <value>1.1238042036170648e+000</value></_>
        <_>
          <depth>3</depth>
          <value>1.3825495653156936e+000</value>
          <splits>
            <_><var>55</var>
              <quality>1.8920592963695526e-001</quality>
              <le>5.6407142639160156e+001</le></_></splits></_>
        <_>
          <depth>4</depth>
          <value>-4.9685893774985218e-001</value></_>
        <_>
          <depth>4</depth>
          <value>1.5357237056446369e+000</value></_>
        <_>
          <depth>2</depth>
          <value>1.7392246626727286e+000</value>
          <splits>
            <_><var>19</var>
              <quality>1.4170241355895996e+000</quality>
              <le>7.0046615600585938e+001</le></_></splits></_>
        <_>
          <depth>3</depth>
          <value>1.4364705326031213e+000</value>
          <splits>
            <_><var>9</var>
              <quality>3.4859082102775574e-001</quality>
              <le>9.8229339599609375e+001</le></_></splits></_>
        <_>
          <depth>4</depth>
          <value>-5.6778115501519244e-001</value></_>
        <_>
          <depth>4</depth>
          <value>1.5175767316372721e+000</value></_>
        <_>
          <depth>3</depth>
          <value>1.8948396060940267e+000</value>
          <splits>
            <_><var>33</var>
              <quality>1.0984658002853394e+000</quality>
              <le>3.9954765319824219e+001</le></_></splits></_>
        <_>
          <depth>4</depth>
          <value>-1.6363636363636365e+000</value></_>
        <_>
          <depth>4</depth>
          <value>1.8990931360619492e+000</value></_></nodes></_>
    <_>
      <nodes>
        <_>
          <depth>0</depth>
          <value>1.4541842092124502e-001</value>
          <splits>
            <_><var>0</var>
              <quality>2.8936925530433655e-001</quality>
              <le>9.6253936767578125e+001</le></_></splits></_>
        <_>
          <depth>1</depth>
          <value>-3.7596753308565833e-001</value>
          <splits>
            <_><var>1</var>
              <quality>1.7278888821601868e-001</quality>
              <le>4.5496479034423828e+001</le></_></splits></_>
        <_>
          <depth>2</depth>
          <value>-8.9163654686041638e-001</value>
          <splits>
            <_><var>57</var>
              <quality>2.0905070006847382e-001</quality>
              <le>1.3460394287109375e+002</le></_></splits></_>
        <_>
          <depth>3</depth>
          <value>-9.7169568791242700e-001</value>
          <splits>
            <_><var>87</var>
              <quality>2.1459777653217316e-001</quality>
              <le>1.3210507202148437e+002</le></_></splits></_>
        <_>
          <depth>4</depth>
          <value>-1.0511851693237326e+000</value></_>
        <_>
          <depth>4</depth>
          <value>5.8778514275710000e-002</value></_>
        <_>
          <depth>3</depth>
          <value>1.2041365854798050e+000</value>
          <splits>
            <_><var>36</var>
              <quality>2.5219922885298729e-002</quality>
              <le>9.0194175720214844e+001</le></_></splits></_>
        <_>
          <depth>4</depth>
          <value>2.1183125130115021e+000</value></_>
        <_>
          <depth>4</depth>
          <value>-6.6293124728743702e-001</value></_>
        <_>
          <depth>2</depth>
          <value>2.4596697727189844e-002</value>
          <splits>
            <_><var>90</var>
              <quality>7.5240239500999451e-002</quality>
              <le>1.2099626159667969e+002</le></_></splits></_>
        <_>
          <depth>3</depth>
          <value>-3.0803656705145599e-001</value>
          <splits>
            <_><var>91</var>
              <quality>7.6608158648014069e-002</quality>
              <le>4.6659091949462891e+001</le></_></splits></_>
        <_>
          <depth>4</depth>
          <value>2.4973931910485119e+000</value></_>
        <_>
          <depth>4</depth>
          <value>-4.1215381479283469e-001</value></_>
        <_>
          <depth>3</depth>
          <value>8.3200567485691534e-001</value>
          <splits>
            <_><var>0</var>
              <quality>7.9622983932495117e-002</quality>
              <le>4.1665355682373047e+001</le></_></splits></_>
        <_>
          <depth>4</depth>
          <value>-8.6320574058577437e-001</value></_>
        <_>
          <depth>4</depth>
          <value>9.9957131438717417e-001</value></_>
        <_>
          <depth>1</depth>
          <value>6.5986025712865137e-001</value>
          <splits>
            <_><var>13</var>
              <quality>2.6800605654716492e-001</quality>
              <le>6.4972229003906250e+001</le></_></splits></_>
        <_>
          <depth>2</depth>
          <value>2.5992442553270839e-001</value>
          <splits>
            <_><var>26</var>
              <quality>7.8759968280792236e-002</quality>
              <le>6.2468177795410156e+001</le></_></splits></_>
        <_>
          <depth>3</depth>
          <value>-6.4188887116202475e-001</value>
          <splits>
            <_><var>39</var>
              <quality>5.5517230182886124e-002</quality>
              <le>8.2997528076171875e+001</le></_></splits></_>
        <_>
          <depth>4</depth>
          <value>-2.0195903331705898e+000</value></_>
        <_>
          <depth>4</depth>
          <value>-2.3176973553377572e-001</value></_>
        <_>
          <depth>3</depth>
          <value>6.4454041721325961e-001</value>
          <splits>
            <_><var>8</var>
              <quality>7.0358827710151672e-002</quality>
              <le>7.6085815429687500e+001</le></_></splits></_>
        <_>
          <depth>4</depth>
          <value>3.3008543184921618e-001</value></_>
        <_>
          <depth>4</depth>
          <value>1.0028317577009365e+000</value></_>
        <_>
          <depth>2</depth>
          <value>9.0246695745968453e-001</value>
          <splits>
            <_><var>60</var>
              <quality>2.6542368531227112e-001</quality>
              <le>1.5626150512695312e+002</le></_></splits></_>
        <_>
          <depth>3</depth>
          <value>9.3840023289912744e-001</value>
          <splits>
            <_><var>42</var>
              <quality>2.7171871066093445e-001</quality>
              <le>6.9027778625488281e+001</le></_></splits></_>
        <_>
          <depth>4</depth>
          <value>6.0231616886903018e-002</value></_>
        <_>
          <depth>4</depth>
          <value>9.6218613658794250e-001</value></_>
        <_>
          <depth>3</depth>
          <value>-8.6882970531491806e-003</value>
          <splits>
            <_><var>60</var>
              <quality>5.2998706698417664e-002</quality>
              <le>1.5720401000976562e+002</le></_></splits></_>
        <_>
          <depth>4</depth>
          <value>-5.1994166504908961e+000</value></_>
        <_>
          <depth>4</depth>
          <value>8.5025241132796470e-001</value></_></nodes></_>
    <_>
      <nodes>
        <_>
          <depth>0</depth>
          <value>8.7750903314803105e-002</value>
          <splits>
            <_><var>0</var>
              <quality>1.2596559524536133e-001</quality>
              <le>5.7147636413574219e+001</le></_></splits></_>
        <_>
          <depth>1</depth>
          <value>-6.0761445062957797e-001</value>
          <splits>
            <_><var>2</var>
              <quality>1.0433719307184219e-001</quality>
              <le>5.2257041931152344e+001</le></_></splits></_>
        <_>
          <depth>2</depth>
          <value>-9.5033094997149337e-001</value>
          <splits>
            <_><var>24</var>
              <quality>1.2116630375385284e-001</quality>
              <le>1.2349099731445312e+002</le></_></splits></_>
        <_>
          <depth>3</depth>
          <value>-9.7242808482925025e-001</value>
          <splits>
            <_><var>90</var>
              <quality>1.1064670979976654e-001</quality>
              <le>1.7091044616699219e+002</le></_></splits></_>
        <_>
          <depth>4</depth>
          <value>-9.7667552102262334e-001</value></_>
        <_>
          <depth>4</depth>
          <value>5.8905575791791529e+000</value></_>
        <_>
          <depth>3</depth>
          <value>6.3395923481602869e+000</value>
          <splits>
            <_><var>91</var>
              <quality>1.5993619337677956e-002</quality>
              <le>4.6772727966308594e+001</le></_></splits></_>
        <_>
          <depth>4</depth>
          <value>2.1813579751306209e+000</value></_>
        <_>
          <depth>4</depth>
          <value>7.8529148608956216e+000</value></_>
        <_>
          <depth>2</depth>
          <value>-1.3526241720780446e-001</value>
          <splits>
            <_><var>60</var>
              <quality>1.5693351626396179e-002</quality>
              <le>1.4096551513671875e+002</le></_></splits></_>
        <_>
          <depth>3</depth>
          <value>-2.2642382916267517e-001</value>
          <splits>
            <_><var>58</var>
              <quality>1.5721200034022331e-002</quality>
              <le>8.7628791809082031e+001</le></_></splits></_>
        <_>
          <depth>4</depth>
          <value>-5.6806826839877700e-001</value></_>
        <_>
          <depth>4</depth>
          <value>2.0752354001947601e-001</value></_>
        <_>
          <depth>3</depth>
          <value>1.7479693037547333e+000</value>
          <splits>
            <_><var>98</var>
              <quality>1.5210228040814400e-002</quality>
              <le>1.3153572082519531e+002</le></_></splits></_>
        <_>
          <depth>4</depth>
          <value>2.2209152165833879e+000</value></_>
        <_>
          <depth>4</depth>
          <value>-2.2357553593567034e-001</value></_>
        <_>
          <depth>1</depth>
          <value>2.5819153816728652e-001</value>
          <splits>
            <_><var>97</var>
              <quality>1.3600736856460571e-001</quality>
              <le>1.3189285278320312e+002</le></_></splits></_>
        <_>
          <depth>2</depth>
          <value>9.4608988525386503e-002</value>
          <splits>
            <_><var>23</var>
              <quality>8.0441370606422424e-002</quality>
              <le>7.2767547607421875e+001</le></_></splits></_>
        <_>
          <depth>3</depth>
          <value>-2.1274698532604114e-001</value>
          <splits>
            <_><var>54</var>
              <quality>6.1179846525192261e-002</quality>
              <le>1.1981044006347656e+002</le></_></splits></_>
        <_>
          <depth>4</depth>
          <value>-4.0304770379655291e-001</value></_>
        <_>
          <depth>4</depth>
          <value>4.6100353515026643e-001</value></_>
        <_>
          <depth>3</depth>
          <value>4.7682561088701975e-001</value>
          <splits>
            <_><var>27</var>
              <quality>9.3226946890354156e-002</quality>
              <le>7.2461006164550781e+001</le></_></splits></_>
        <_>
          <depth>4</depth>
          <value>1.2029239318438090e+000</value></_>
        <_>
          <depth>4</depth>
          <value>3.3721772698162916e-001</value></_>
        <_>
          <depth>2</depth>
          <value>8.8797447544460795e-001</value>
          <splits>
            <_><var>66</var>
              <quality>1.4038483798503876e-001</quality>
              <le>8.2557228088378906e+001</le></_></splits></_>
        <_>
          <depth>3</depth>
          <value>1.3022982285643010e+000</value>
          <splits>
            <_><var>2</var>
              <quality>7.5797714293003082e-002</quality>
              <le>2.6922534942626953e+001</le></_></splits></_>
        <_>
          <depth>4</depth>
          <value>8.2632376281684804e-003</value></_>
        <_>
          <depth>4</depth>
          <value>1.3443815508586756e+000</value></_>
        <_>
          <depth>3</depth>
          <value>7.4087298854349926e-001</value>
          <splits>
            <_><var>0</var>
              <quality>7.0868685841560364e-002</quality>
              <le>1.1553739929199219e+002</le></_></splits></_>
        <_>
          <depth>4</depth>
          <value>5.7364621150725814e-001</value></_>
        <_>
          <depth>4</depth>
          <value>9.3323959062014916e-001</value></_></nodes></_>
    <_>
      <nodes>
        <_>
          <depth>0</depth>
          <value>5.1739446740771328e-002</value>
          <splits>
            <_><var>15</var>
              <quality>8.2815349102020264e-002</quality>
              <le>9.9797012329101563e+001</le></_></splits></_>
        <_>
          <depth>1</depth>
          <value>-1.7658461866340844e-001</value>
          <splits>
            <_><var>96</var>
              <quality>8.7575189769268036e-002</quality>
              <le>1.1636111450195312e+002</le></_></splits></_>
        <_>
          <depth>2</depth>
          <value>-4.4477848053728186e-001</value>
          <splits>
            <_><var>50</var>
              <quality>1.1070100218057632e-001</quality>
              <le>9.3596153259277344e+001</le></_></splits></_>
        <_>
          <depth>3</depth>
          <value>-6.7023884202578532e-001</value>
          <splits>
            <_><var>98</var>
              <quality>1.3751065731048584e-001</quality>
              <le>1.1653572082519531e+002</le></_></splits></_>
        <_>
          <depth>4</depth>
          <value>-4.5985341039631433e-001</value></_>
        <_>
          <depth>4</depth>
          <value>-1.1881564272598510e+000</value></_>
        <_>
          <depth>3</depth>
          <value>1.6730905128464271e-002</value>
          <splits>
            <_><var>68</var>
              <quality>1.1988188140094280e-002</quality>
              <le>4.0074073791503906e+001</le></_></splits></_>
        <_>
          <depth>4</depth>
          <value>6.3505669707649925e+000</value></_>
        <_>
          <depth>4</depth>
          <value>1.0484256133236796e-003</value></_>
        <_>
          <depth>2</depth>
          <value>2.5759751313472856e-001</value>
          <splits>
            <_><var>33</var>
              <quality>3.7803433835506439e-002</quality>
              <le>8.8064285278320313e+001</le></_></splits></_>
        <_>
          <depth>3</depth>
          <value>4.7695789483523193e-001</value>
          <splits>
            <_><var>51</var>
              <quality>5.9347435832023621e-002</quality>
              <le>1.0242741394042969e+002</le></_></splits></_>
        <_>
          <depth>4</depth>
          <value>2.0537107726564516e-001</value></_>
        <_>
          <depth>4</depth>
          <value>1.0657802632983906e+000</value></_>
        <_>
          <depth>3</depth>
          <value>-2.0071737889398417e-001</value>
          <splits>
            <_><var>0</var>
              <quality>4.0946505963802338e-002</quality>
              <le>9.3998031616210938e+001</le></_></splits></_>
        <_>
          <depth>4</depth>
          <value>-7.2206557816485717e-001</value></_>
        <_>
          <depth>4</depth>
          <value>7.9317672276311946e-001</value></_>
        <_>
          <depth>1</depth>
          <value>4.1576352799235122e-001</value>
          <splits>
            <_><var>69</var>
              <quality>1.0106386989355087e-001</quality>
              <le>8.8422836303710938e+001</le></_></splits></_>
        <_>
          <depth>2</depth>
          <value>9.0991005593991492e-001</value>
          <splits>
            <_><var>87</var>
              <quality>9.4154775142669678e-002</quality>
              <le>8.3510871887207031e+001</le></_></splits></_>
        <_>
          <depth>3</depth>
          <value>4.1249856627337111e-001</value>
          <splits>
            <_><var>77</var>
              <quality>1.1852202005684376e-002</quality>
              <le>1.5720239257812500e+002</le></_></splits></_>
        <_>
          <depth>4</depth>
          <value>4.7153714692132803e-001</value></_>
        <_>
          <depth>4</depth>
          <value>-7.7084502462008526e+000</value></_>
        <_>
          <depth>3</depth>
          <value>1.0119890593129088e+000</value>
          <splits>
            <_><var>80</var>
              <quality>9.3676865100860596e-002</quality>
              <le>6.6960525512695313e+001</le></_></splits></_>
        <_>
          <depth>4</depth>
          <value>6.0824205332580028e-001</value></_>
        <_>
          <depth>4</depth>
          <value>1.0851632721138527e+000</value></_>
        <_>
          <depth>2</depth>
          <value>2.1590539187717023e-001</value>
          <splits>
            <_><var>58</var>
              <quality>4.3440233916044235e-002</quality>
              <le>7.2719696044921875e+001</le></_></splits></_>
        <_>
          <depth>3</depth>
          <value>-3.5765024431802667e-001</value>
          <splits>
            <_><var>97</var>
              <quality>3.4090701490640640e-002</quality>
              <le>5.4892860412597656e+001</le></_></splits></_>
        <_>
          <depth>4</depth>
          <value>9.3479874611824987e-001</value></_>
        <_>
          <depth>4</depth>
          <value>-6.3733288679105349e-001</value></_>
        <_>
          <depth>3</depth>
          <value>4.2051334958374548e-001</value>
          <splits>
            <_><var>0</var>
              <quality>5.2454531192779541e-002</quality>
              <le>1.1621456909179687e+002</le></_></splits></_>
        <_>
          <depth>4</depth>
          <value>-1.9651738291475679e-001</value></_>
        <_>
          <depth>4</depth>
          <value>5.6928191424553465e-001</value></_></nodes></_>
    <_>
      <nodes>
        <_>
          <depth>0</depth>
          <value>3.4712164954703438e-002</value>
          <splits>
            <_><var>45</var>
              <quality>3.0896520242094994e-002</quality>
              <le>1.4421391296386719e+002</le></_></splits></_>
        <_>
          <depth>1</depth>
          <value>-4.6757736347738154e-003</value>
          <splits>
            <_><var>78</var>
              <quality>2.7129242196679115e-002</quality>
              <le>1.4291000366210937e+002</le></_></splits></_>
        <_>
          <depth>2</depth>
          <value>-3.8313234652222986e-002</value>
          <splits>
            <_><var>7</var>
              <quality>2.7332404628396034e-002</quality>
              <le>5.9123130798339844e+001</le></_></splits></_>
        <_>
          <depth>3</depth>
          <value>-2.2666790903559800e-001</value>
          <splits>
            <_><var>35</var>
              <quality>5.4761905223131180e-002</quality>
              <le>1.0326020050048828e+002</le></_></splits></_>
        <_>
          <depth>4</depth>
          <value>-3.2868355299945806e-001</value></_>
        <_>
          <depth>4</depth>
          <value>6.1519915448962559e-001</value></_>
        <_>
          <depth>3</depth>
          <value>1.1999105895963884e-001</value>
          <splits>
            <_><var>63</var>
              <quality>2.9058346524834633e-002</quality>
              <le>6.6308822631835938e+001</le></_></splits></_>
        <_>
          <depth>4</depth>
          <value>9.5088109931986708e-001</value></_>
        <_>
          <depth>4</depth>
          <value>6.3645117324352005e-002</value></_>
        <_>
          <depth>2</depth>
          <value>8.8417088010589118e-001</value>
          <splits>
            <_><var>72</var>
              <quality>2.8860667720437050e-002</quality>
              <le>1.2698735046386719e+002</le></_></splits></_>
        <_>
          <depth>3</depth>
          <value>1.4802502624328921e+000</value>
          <splits>
            <_><var>79</var>
              <quality>1.5350954607129097e-002</quality>
              <le>9.1552627563476563e+001</le></_></splits></_>
        <_>
          <depth>4</depth>
          <value>2.1575361832333564e+000</value></_>
        <_>
          <depth>4</depth>
          <value>1.3578213278263158e+000</value></_>
        <_>
          <depth>3</depth>
          <value>7.3124375378859219e-001</value>
          <splits>
            <_><var>98</var>
              <quality>1.8556462600827217e-002</quality>
              <le>1.7417858886718750e+002</le></_></splits></_>
        <_>
          <depth>4</depth>
          <value>8.3716044232085263e-001</value></_>
        <_>
          <depth>4</depth>
          <value>-8.7880571504146809e-001</value></_>
        <_>
          <depth>1</depth>
          <value>8.2833407992417230e-001</value>
          <splits>
            <_><var>75</var>
              <quality>3.8148641586303711e-002</quality>
              <le>1.3786038208007812e+002</le></_></splits></_>
        <_>
          <depth>2</depth>
          <value>9.9237471739964978e-001</value>
          <splits>
            <_><var>6</var>
              <quality>4.2841911315917969e-002</quality>
              <le>5.1871948242187500e+001</le></_></splits></_>
        <_>
          <depth>3</depth>
          <value>5.4661557725127459e+000</value>
          <splits>
            <_><var>2</var>
              <quality>7.5911520980298519e-003</quality>
              <le>4.7433097839355469e+001</le></_></splits></_>
        <_>
          <depth>4</depth>
          <value>2.2753513164154491e+000</value></_>
        <_>
          <depth>4</depth>
          <value>5.9792969137263041e+000</value></_>
        <_>
          <depth>3</depth>
          <value>9.6426593544104200e-001</value>
          <splits>
            <_><var>15</var>
              <quality>3.8399096578359604e-002</quality>
              <le>8.9974365234375000e+001</le></_></splits></_>
        <_>
          <depth>4</depth>
          <value>1.0054004955707730e-003</value></_>
        <_>
          <depth>4</depth>
          <value>1.0388433229268188e+000</value></_>
        <_>
          <depth>2</depth>
          <value>-1.5676393810247760e-001</value>
          <splits>
            <_><var>87</var>
              <quality>4.1472101584076881e-003</quality>
              <le>9.6500000000000000e+001</le></_></splits></_>
        <_>
          <depth>3</depth>
          <value>-1.2916868798753598e+000</value>
          <splits>
            <_><var>60</var>
              <quality>4.7573815099895000e-003</quality>
              <le>1.5720401000976562e+002</le></_></splits></_>
        <_>
          <depth>4</depth>
          <value>-1.0793039261799093e+000</value></_>
        <_>
          <depth>4</depth>
          <value>-4.1551420989511039e+000</value></_>
        <_>
          <depth>3</depth>
          <value>3.9042363673507724e-001</value>
          <splits>
            <_><var>0</var>
              <quality>1.7136906972154975e-003</quality>
              <le>1.1974212646484375e+002</le></_></splits></_>
        <_>
          <depth>4</depth>
          <value>-8.4815268448575371e-002</value></_>
        <_>
          <depth>4</depth>
          <value>9.0165254155674934e-001</value></_></nodes></_>
    <_>
      <nodes>
        <_>
          <depth>0</depth>
          <value>1.9640969915677733e-002</value>
          <splits>
            <_><var>0</var>
              <quality>2.7769198641180992e-002</quality>
              <le>3.6714565277099609e+001</le></_></splits></_>
        <_>
          <depth>1</depth>
          <value>-7.7148689912446822e-001</value>
          <splits>
            <_><var>18</var>
              <quality>3.1886599957942963e-002</quality>
              <le>7.7817390441894531e+001</le></_></splits></_>
        <_>
          <depth>2</depth>
          <value>-8.1333943294393840e-001</value>
          <splits>
            <_><var>95</var>
              <quality>3.3529851585626602e-002</quality>
              <le>1.6047222900390625e+002</le></_></splits></_>
        <_>
          <depth>3</depth>
          <value>-6.7472210634267160e-001</value>
          <splits>
            <_><var>69</var>
              <quality>2.4563500657677650e-002</quality>
              <le>1.1695988464355469e+002</le></_></splits></_>
        <_>
          <depth>4</depth>
          <value>-8.4421381494046532e-001</value></_>
        <_>
          <depth>4</depth>
          <value>5.9256434930937651e-001</value></_>
        <_>
          <depth>3</depth>
          <value>-1.8811709636808389e+000</value>
          <splits>
            <_><var>69</var>
              <quality>1.8560212105512619e-002</quality>
              <le>1.4326852416992187e+002</le></_></splits></_>
        <_>
          <depth>4</depth>
          <value>-1.7725434137673934e+000</value></_>
        <_>
          <depth>4</depth>
          <value>-5.2076535673134945e+000</value></_>
        <_>
          <depth>2</depth>
          <value>3.2107680354616277e+000</value>
          <splits>
            <_><var>28</var>
              <quality>5.0023924559354782e-003</quality>
              <le>4.9268867492675781e+001</le></_></splits></_>
        <_>
          <depth>3</depth>
          <value>-1.0635822635730547e+000</value></_>
        <_>
          <depth>3</depth>
          <value>3.4875071183691708e+000</value>
          <splits>
            <_><var>91</var>
              <quality>5.4291756823658943e-003</quality>
              <le>5.0613639831542969e+001</le></_></splits></_>
        <_>
          <depth>4</depth>
          <value>2.1764544885429857e+000</value></_>
        <_>
          <depth>4</depth>
          <value>4.3396153959005082e+000</value></_>
        <_>
          <depth>1</depth>
          <value>5.6099454801669127e-002</value>
          <splits>
            <_><var>84</var>
              <quality>2.8026677668094635e-002</quality>
              <le>1.0472183227539062e+002</le></_></splits></_>
        <_>
          <depth>2</depth>
          <value>-1.2450424171541148e-001</value>
          <splits>
            <_><var>98</var>
              <quality>4.8035196959972382e-002</quality>
              <le>1.2225000762939453e+002</le></_></splits></_>
        <_>
          <depth>3</depth>
          <value>5.9662479659243019e-002</value>
          <splits>
            <_><var>45</var>
              <quality>2.2277688607573509e-002</quality>
              <le>1.1814690399169922e+002</le></_></splits></_>
        <_>
          <depth>4</depth>
          <value>-8.3426992625854443e-002</value></_>
        <_>
          <depth>4</depth>
          <value>5.3501919643964335e-001</value></_>
        <_>
          <depth>3</depth>
          <value>-6.6554512737486016e-001</value>
          <splits>
            <_><var>3</var>
              <quality>1.0823395103216171e-001</quality>
              <le>1.5823800659179687e+002</le></_></splits></_>
        <_>
          <depth>4</depth>
          <value>-4.5761220121736806e-001</value></_>
        <_>
          <depth>4</depth>
          <value>-3.4485469295155662e+000</value></_>
        <_>
          <depth>2</depth>
          <value>2.0954286512065248e-001</value>
          <splits>
            <_><var>0</var>
              <quality>4.2629059404134750e-002</quality>
              <le>6.4332679748535156e+001</le></_></splits></_>
        <_>
          <depth>3</depth>
          <value>-2.4072392724842553e-001</value>
          <splits>
            <_><var>7</var>
              <quality>2.2095527499914169e-002</quality>
              <le>5.0988803863525391e+001</le></_></splits></_>
        <_>
          <depth>4</depth>
          <value>-9.5651489367907638e-001</value></_>
        <_>
          <depth>4</depth>
          <value>3.8222457190015317e-002</value></_>
        <_>
          <depth>3</depth>
          <value>3.0483951788242064e-001</value>
          <splits>
            <_><var>24</var>
              <quality>6.5793536603450775e-002</quality>
              <le>6.3871620178222656e+001</le></_></splits></_>
        <_>
          <depth>4</depth>
          <value>1.2026778467344659e+000</value></_>
        <_>
          <depth>4</depth>
          <value>2.2751479851336107e-001</value></_></nodes></_>
    <_>
      <nodes>
        <_>
          <depth>0</depth>
          <value>4.5455783840113090e-002</value>
          <splits>
            <_><var>18</var>
              <quality>3.9186380803585052e-002</quality>
              <le>1.1061521148681641e+002</le></_></splits></_>
        <_>
          <depth>1</depth>
          <value>-6.8805839597674695e-002</value>
          <splits>
            <_><var>39</var>
              <quality>4.2762272059917450e-002</quality>
              <le>1.1502227783203125e+002</le></_></splits></_>
        <_>
          <depth>2</depth>
          <value>1.8949744075786208e-002</value>
          <splits>
            <_><var>86</var>
              <quality>1.8642952665686607e-002</quality>
              <le>9.5016677856445312e+001</le></_></splits></_>
        <_>
          <depth>3</depth>
          <value>-1.6911097807848610e-001</value>
          <splits>
            <_><var>42</var>
              <quality>2.9660204425454140e-002</quality>
              <le>8.4724746704101563e+001</le></_></splits></_>
        <_>
          <depth>4</depth>
          <value>-4.6252032958020584e-001</value></_>
        <_>
          <depth>4</depth>
          <value>8.9153280384600145e-002</value></_>
        <_>
          <depth>3</depth>
          <value>1.7553878261138800e-001</value>
          <splits>
            <_><var>69</var>
              <quality>2.8017226606607437e-002</quality>
              <le>7.3830245971679688e+001</le></_></splits></_>
        <_>
          <depth>4</depth>
          <value>8.4481528617356838e-001</value></_>
        <_>
          <depth>4</depth>
          <value>9.8917922464825336e-002</value></_>
        <_>
          <depth>2</depth>
          <value>-6.9868850343663014e-001</value>
          <splits>
            <_><var>91</var>
              <quality>7.2552822530269623e-002</quality>
              <le>5.0704547882080078e+001</le></_></splits></_>
        <_>
          <depth>3</depth>
          <value>1.2816813455323888e+000</value>
          <splits>
            <_><var>66</var>
              <quality>1.6621407121419907e-002</quality>
              <le>1.0617770385742187e+002</le></_></splits></_>
        <_>
          <depth>4</depth>
          <value>-1.6445677748761395e-001</value></_>
        <_>
          <depth>4</depth>
          <value>1.7794500019512147e+000</value></_>
        <_>
          <depth>3</depth>
          <value>-8.7262372720388837e-001</value>
          <splits>
            <_><var>27</var>
              <quality>7.6230160892009735e-002</quality>
              <le>7.5956420898437500e+001</le></_></splits></_>
        <_>
          <depth>4</depth>
          <value>1.4090517114098242e+000</value></_>
        <_>
          <depth>4</depth>
          <value>-9.5597756317981197e-001</value></_>
        <_>
          <depth>1</depth>
          <value>3.8836477481236653e-001</value>
          <splits>
            <_><var>89</var>
              <quality>5.9794977307319641e-002</quality>
              <le>7.8865386962890625e+001</le></_></splits></_>
        <_>
          <depth>2</depth>
          <value>-1.9135569878953312e-001</value>
          <splits>
            <_><var>38</var>
              <quality>2.1207181736826897e-002</quality>
              <le>6.3250000000000000e+001</le></_></splits></_>
        <_>
          <depth>3</depth>
          <value>-6.5811982178366091e-001</value>
          <splits>
            <_><var>51</var>
              <quality>3.5275194793939590e-002</quality>
              <le>1.0672850036621094e+002</le></_></splits></_>
        <_>
          <depth>4</depth>
          <value>-1.2117090242516810e+000</value></_>
        <_>
          <depth>4</depth>
          <value>4.4394895735983136e-001</value></_>
        <_>
          <depth>3</depth>
          <value>5.5824456881578588e-001</value>
          <splits>
            <_><var>92</var>
              <quality>1.1346370913088322e-002</quality>
              <le>6.6522727966308594e+001</le></_></splits></_>
        <_>
          <depth>4</depth>
          <value>1.0981999575749224e+000</value></_>
        <_>
          <depth>4</depth>
          <value>1.3738569781568627e-001</value></_>
        <_>
          <depth>2</depth>
          <value>5.6258981596472057e-001</value>
          <splits>
            <_><var>63</var>
              <quality>7.3800161480903625e-002</quality>
              <le>9.3738235473632813e+001</le></_></splits></_>
        <_>
          <depth>3</depth>
          <value>9.8108889550034972e-001</value>
          <splits>
            <_><var>49</var>
              <quality>6.1828650534152985e-002</quality>
              <le>3.4237182617187500e+001</le></_></splits></_>
        <_>
          <depth>4</depth>
          <value>-9.8510349338671399e-001</value></_>
        <_>
          <depth>4</depth>
          <value>1.0076921483570789e+000</value></_>
        <_>
          <depth>3</depth>
          <value>3.5299676726426948e-001</value>
          <splits>
            <_><var>5</var>
              <quality>3.3105228096246719e-002</quality>
              <le>8.7822463989257813e+001</le></_></splits></_>
        <_>
          <depth>4</depth>
          <value>1.4953134268860549e-001</value></_>
        <_>
          <depth>4</depth>
          <value>1.0780852917456696e+000</value></_></nodes></_>
    <_>
      <nodes>
        <_>
          <depth>0</depth>
          <value>3.1055853423232617e-002</value>
          <splits>
            <_><var>98</var>
              <quality>3.8190267980098724e-002</quality>
              <le>4.0535713195800781e+001</le></_></splits></_>
        <_>
          <depth>1</depth>
          <value>1.3130777298126013e+000</value>
          <splits>
            <_><var>0</var>
              <quality>4.2714804410934448e-002</quality>
              <le>7.4769683837890625e+001</le></_></splits></_>
        <_>
          <depth>2</depth>
          <value>5.1553148782116376e-001</value>
          <splits>
            <_><var>63</var>
              <quality>5.8644842356443405e-003</quality>
              <le>1.0132058715820312e+002</le></_></splits></_>
        <_>
          <depth>3</depth>
          <value>-1.8390026948319810e-001</value>
          <splits>
            <_><var>91</var>
              <quality>3.3166967332363129e-003</quality>
              <le>1.3970455932617187e+002</le></_></splits></_>
        <_>
          <depth>4</depth>
          <value>-4.7155955126802129e-001</value></_>
        <_>
          <depth>4</depth>
          <value>3.1121907745076891e+000</value></_>
        <_>
          <depth>3</depth>
          <value>1.6927914906487900e+000</value>
          <splits>
            <_><var>84</var>
              <quality>1.1907771229743958e-002</quality>
              <le>6.8971832275390625e+001</le></_></splits></_>
        <_>
          <depth>4</depth>
          <value>4.9953127430928319e+000</value></_>
        <_>
          <depth>4</depth>
          <value>7.6365495583243492e-001</value></_>
        <_>
          <depth>2</depth>
          <value>1.5692115864088894e+000</value>
          <splits>
            <_><var>10</var>
              <quality>4.2781963944435120e-002</quality>
              <le>6.7392303466796875e+001</le></_></splits></_>
        <_>
          <depth>3</depth>
          <value>1.8762295406426939e+000</value>
          <splits>
            <_><var>33</var>
              <quality>3.0563402920961380e-002</quality>
              <le>1.0720714569091797e+002</le></_></splits></_>
        <_>
          <depth>4</depth>
          <value>2.5135898170892936e+000</value></_>
        <_>
          <depth>4</depth>
          <value>1.5220681094984070e+000</value></_>
        <_>
          <depth>3</depth>
          <value>1.2781562575870555e+000</value>
          <splits>
            <_><var>21</var>
              <quality>1.4486408792436123e-002</quality>
              <le>7.3546463012695313e+001</le></_></splits></_>
        <_>
          <depth>4</depth>
          <value>1.8569189889622999e+000</value></_>
        <_>
          <depth>4</depth>
          <value>1.1926079355865549e+000</value></_>
        <_>
          <depth>1</depth>
          <value>4.5134176685217314e-004</value>
          <splits>
            <_><var>91</var>
              <quality>1.9926568493247032e-002</quality>
              <le>1.3852273559570312e+002</le></_></splits></_>
        <_>
          <depth>2</depth>
          <value>-4.4416530091607509e-002</value>
          <splits>
            <_><var>0</var>
              <quality>1.9206460565328598e-002</quality>
              <le>2.0310038757324219e+002</le></_></splits></_>
        <_>
          <depth>3</depth>
          <value>-5.9232683368640612e-002</value>
          <splits>
            <_><var>93</var>
              <quality>1.7996307462453842e-002</quality>
              <le>1.5401153564453125e+002</le></_></splits></_>
        <_>
          <depth>4</depth>
          <value>-7.5064792701660776e-002</value></_>
        <_>
          <depth>4</depth>
          <value>1.0733117732733404e+000</value></_>
        <_>
          <depth>3</depth>
          <value>1.3505095924294113e+000</value>
          <splits>
            <_><var>87</var>
              <quality>1.6648063436150551e-002</quality>
              <le>1.1512681579589844e+002</le></_></splits></_>
        <_>
          <depth>4</depth>
          <value>1.4890648626068568e+000</value></_>
        <_>
          <depth>4</depth>
          <value>1.0374752143205956e+000</value></_>
        <_>
          <depth>2</depth>
          <value>4.7909604941269784e-001</value>
          <splits>
            <_><var>1</var>
              <quality>2.6453172788023949e-002</quality>
              <le>5.1383800506591797e+001</le></_></splits></_>
        <_>
          <depth>3</depth>
          <value>-3.5276774368535468e-001</value>
          <splits>
            <_><var>42</var>
              <quality>6.0230358503758907e-003</quality>
              <le>1.0343939208984375e+002</le></_></splits></_>
        <_>
          <depth>4</depth>
          <value>-7.8087034672434419e-001</value></_>
        <_>
          <depth>4</depth>
          <value>7.2072558570285117e-001</value></_>
        <_>
          <depth>3</depth>
          <value>6.0305708013427128e-001</value>
          <splits>
            <_><var>48</var>
              <quality>3.1710848212242126e-002</quality>
              <le>1.1576052856445312e+002</le></_></splits></_>
        <_>
          <depth>4</depth>
          <value>7.4575515026785533e-001</value></_>
        <_>
          <depth>4</depth>
          <value>-5.9268033565837250e-002</value></_></nodes></_>
    <_>
      <nodes>
        <_>
          <depth>0</depth>
          <value>4.7201426925612021e-003</value>
          <splits>
            <_><var>0</var>
              <quality>1.6384258866310120e-002</quality>
              <le>9.4431098937988281e+001</le></_></splits></_>
        <_>
          <depth>1</depth>
          <value>-1.0944309590659945e-001</value>
          <splits>
            <_><var>30</var>
              <quality>3.6125682294368744e-002</quality>
              <le>6.7880844116210937e+001</le></_></splits></_>
        <_>
          <depth>2</depth>
          <value>2.8002219997790861e-001</value>
          <splits>
            <_><var>57</var>
              <quality>2.6566248387098312e-002</quality>
              <le>9.3587081909179688e+001</le></_></splits></_>
        <_>
          <depth>3</depth>
          <value>1.7092316068560511e-002</value>
          <splits>
            <_><var>20</var>
              <quality>1.9307877868413925e-002</quality>
              <le>5.7953392028808594e+001</le></_></splits></_>
        <_>
          <depth>4</depth>
          <value>-7.1073764243044968e-001</value></_>
        <_>
          <depth>4</depth>
          <value>3.2126294534522098e-001</value></_>
        <_>
          <depth>3</depth>
          <value>6.8555950505518426e-001</value>
          <splits>
            <_><var>83</var>
              <quality>5.0352152436971664e-002</quality>
              <le>1.2375000000000000e+002</le></_></splits></_>
        <_>
          <depth>4</depth>
          <value>9.9714244921213768e-001</value></_>
        <_>
          <depth>4</depth>
          <value>-6.6771729135836544e-001</value></_>
        <_>
          <depth>2</depth>
          <value>-2.5020880142638191e-001</value>
          <splits>
            <_><var>2</var>
              <quality>4.3780684471130371e-002</quality>
              <le>1.3448239135742187e+002</le></_></splits></_>
        <_>
          <depth>3</depth>
          <value>-2.1793060077236498e-001</value>
          <splits>
            <_><var>60</var>
              <quality>3.5028424113988876e-002</quality>
              <le>9.2330459594726562e+001</le></_></splits></_>
        <_>
          <depth>4</depth>
          <value>1.5305681176757960e-001</value></_>
        <_>
          <depth>4</depth>
          <value>-3.3281032501968189e-001</value></_>
        <_>
          <depth>3</depth>
          <value>-1.7252630946251588e+000</value>
          <splits>
            <_><var>48</var>
              <quality>3.1596921384334564e-002</quality>
              <le>9.7389480590820313e+001</le></_></splits></_>
        <_>
          <depth>4</depth>
          <value>-2.1719562273436246e+000</value></_>
        <_>
          <depth>4</depth>
          <value>-7.3035242813561621e-002</value></_>
        <_>
          <depth>1</depth>
          <value>1.5559419992601883e-001</value>
          <splits>
            <_><var>66</var>
              <quality>3.1869024038314819e-002</quality>
              <le>8.5942764282226562e+001</le></_></splits></_>
        <_>
          <depth>2</depth>
          <value>6.3670223905863532e-001</value>
          <splits>
            <_><var>96</var>
              <quality>4.1338935494422913e-002</quality>
              <le>9.7202384948730469e+001</le></_></splits></_>
        <_>
          <depth>3</depth>
          <value>5.6399333619880351e-002</value>
          <splits>
            <_><var>47</var>
              <quality>1.3817436993122101e-002</quality>
              <le>1.5485365295410156e+002</le></_></splits></_>
        <_>
          <depth>4</depth>
          <value>1.3086167477955929e-001</value></_>
        <_>
          <depth>4</depth>
          <value>-8.4883630575622107e+000</value></_>
        <_>
          <depth>3</depth>
          <value>8.6298308480880048e-001</value>
          <splits>
            <_><var>17</var>
              <quality>4.7245960682630539e-002</quality>
              <le>4.0282783508300781e+001</le></_></splits></_>
        <_>
          <depth>4</depth>
          <value>-1.0767182744622245e-001</value></_>
        <_>
          <depth>4</depth>
          <value>9.7407852860284327e-001</value></_>
        <_>
          <depth>2</depth>
          <value>4.4038663229337055e-002</value>
          <splits>
            <_><var>45</var>
              <quality>3.2269883900880814e-002</quality>
              <le>6.9677833557128906e+001</le></_></splits></_>
        <_>
          <depth>3</depth>
          <value>-1.3576070254826902e+000</value>
          <splits>
            <_><var>39</var>
              <quality>4.0191464126110077e-002</quality>
              <le>7.0413360595703125e+001</le></_></splits></_>
        <_>
          <depth>4</depth>
          <value>-1.8513661100685865e+000</value></_>
        <_>
          <depth>4</depth>
          <value>2.1121689569001478e-001</value></_>
        <_>
          <depth>3</depth>
          <value>1.1196261398147930e-001</value>
          <splits>
            <_><var>32</var>
              <quality>2.4601070210337639e-002</quality>
              <le>1.0042646789550781e+002</le></_></splits></_>
        <_>
          <depth>4</depth>
          <value>2.5883795680307659e-002</value></_>
        <_>
          <depth>4</depth>
          <value>8.6838461604647443e-001</value></_></nodes></_>
    <_>
      <nodes>
        <_>
          <depth>0</depth>
          <value>1.4188541614152349e-002</value>
          <splits>
            <_><var>54</var>
              <quality>1.6890898346900940e-002</quality>
              <le>1.4553572082519531e+002</le></_></splits></_>
        <_>
          <depth>1</depth>
          <value>-8.8930685817742335e-003</value>
          <splits>
            <_><var>74</var>
              <quality>1.5029062516987324e-002</quality>
              <le>3.6532608032226563e+001</le></_></splits></_>
        <_>
          <depth>2</depth>
          <value>1.0552515736800328e+000</value>
          <splits>
            <_><var>2</var>
              <quality>2.0426549017429352e-002</quality>
              <le>2.1404930114746094e+001</le></_></splits></_>
        <_>
          <depth>3</depth>
          <value>-3.3220080013390973e-001</value>
          <splits>
            <_><var>0</var>
              <quality>1.6620045062154531e-003</quality>
              <le>8.8858261108398438e+001</le></_></splits></_>
        <_>
          <depth>4</depth>
          <value>-7.2448242339644309e-001</value></_>
        <_>
          <depth>4</depth>
          <value>1.0879056739459838e+000</value></_>
        <_>
          <depth>3</depth>
          <value>1.3833298954340290e+000</value>
          <splits>
            <_><var>38</var>
              <quality>2.2440522909164429e-002</quality>
              <le>7.2579788208007812e+001</le></_></splits></_>
        <_>
          <depth>4</depth>
          <value>1.5166239954279561e+000</value></_>
        <_>
          <depth>4</depth>
          <value>-2.4721083026158591e-001</value></_>
        <_>
          <depth>2</depth>
          <value>-2.4135730696650919e-002</value>
          <splits>
            <_><var>11</var>
              <quality>1.4442778192460537e-002</quality>
              <le>8.3703842163085938e+001</le></_></splits></_>
        <_>
          <depth>3</depth>
          <value>-9.2134788888701066e-002</value>
          <splits>
            <_><var>90</var>
              <quality>2.3143831640481949e-002</quality>
              <le>1.0348133850097656e+002</le></_></splits></_>
        <_>
          <depth>4</depth>
          <value>-2.8901580794626225e-001</value></_>
        <_>
          <depth>4</depth>
          <value>3.3130961608763339e-002</value></_>
        <_>
          <depth>3</depth>
          <value>2.0094783537917588e-001</value>
          <splits>
            <_><var>98</var>
              <quality>2.2386413067579269e-002</quality>
              <le>1.5846429443359375e+002</le></_></splits></_>
        <_>
          <depth>4</depth>
          <value>2.8251321824190495e-001</value></_>
        <_>
          <depth>4</depth>
          <value>-6.0530970575208842e-001</value></_>
        <_>
          <depth>1</depth>
          <value>7.7576997082454180e-001</value>
          <splits>
            <_><var>78</var>
              <quality>2.2329166531562805e-002</quality>
              <le>1.2338667297363281e+002</le></_></splits></_>
        <_>
          <depth>2</depth>
          <value>1.3083877361251397e+000</value>
          <splits>
            <_><var>60</var>
              <quality>2.2717380896210670e-002</quality>
              <le>1.4844540405273437e+002</le></_></splits></_>
        <_>
          <depth>3</depth>
          <value>7.1298782619882550e-001</value>
          <splits>
            <_><var>42</var>
              <quality>3.8693654350936413e-003</quality>
              <le>1.1374242401123047e+002</le></_></splits></_>
        <_>
          <depth>4</depth>
          <value>-4.6280510868176489e-001</value></_>
        <_>
          <depth>4</depth>
          <value>9.4426524768792830e-001</value></_>
        <_>
          <depth>3</depth>
          <value>1.7625287201770272e+000</value>
          <splits>
            <_><var>0</var>
              <quality>2.1430205553770065e-002</quality>
              <le>8.6059051513671875e+001</le></_></splits></_>
        <_>
          <depth>4</depth>
          <value>2.1683558234144678e+000</value></_>
        <_>
          <depth>4</depth>
          <value>1.2949421895708366e+000</value></_>
        <_>
          <depth>2</depth>
          <value>4.0549701382695930e-001</value>
          <splits>
            <_><var>21</var>
              <quality>1.0492832399904728e-002</quality>
              <le>1.1841150665283203e+002</le></_></splits></_>
        <_>
          <depth>3</depth>
          <value>7.8278717041281509e-001</value>
          <splits>
            <_><var>98</var>
              <quality>1.4169322326779366e-002</quality>
              <le>1.3789285278320312e+002</le></_></splits></_>
        <_>
          <depth>4</depth>
          <value>1.1106437900219952e+000</value></_>
        <_>
          <depth>4</depth>
          <value>-7.6041815047518113e-001</value></_>
        <_>
          <depth>3</depth>
          <value>-8.4574443769516339e-001</value>
          <splits>
            <_><var>17</var>
              <quality>6.9909384474158287e-003</quality>
              <le>8.1897537231445313e+001</le></_></splits></_>
        <_>
          <depth>4</depth>
          <value>8.2287546639426989e-001</value></_>
        <_>
          <depth>4</depth>
          <value>-1.5140864543912562e+000</value></_></nodes></_>
    <_>
      <nodes>
        <_>
          <depth>0</depth>
          <value>1.6394414616514757e-003</value>
          <splits>
            <_><var>0</var>
              <quality>1.8773699179291725e-002</quality>
              <le>7.4340553283691406e+001</le></_></splits></_>
        <_>
          <depth>1</depth>
          <value>-1.9709135175808182e-001</value>
          <splits>
            <_><var>12</var>
              <quality>2.6306647807359695e-002</quality>
              <le>6.2292022705078125e+001</le></_></splits></_>
        <_>
          <depth>2</depth>
          <value>3.4392156741271808e-002</value>
          <splits>
            <_><var>0</var>
              <quality>1.3846785761415958e-002</quality>
              <le>5.8990158081054688e+001</le></_></splits></_>
        <_>
          <depth>3</depth>
          <value>-1.2120364497992456e-001</value>
          <splits>
            <_><var>70</var>
              <quality>1.2722564861178398e-002</quality>
              <le>1.4708999633789062e+002</le></_></splits></_>
        <_>
          <depth>4</depth>
          <value>-1.7763408649656878e-001</value></_>
        <_>
          <depth>4</depth>
          <value>1.5921019089010389e+000</value></_>
        <_>
          <depth>3</depth>
          <value>6.4830106199581816e-001</value>
          <splits>
            <_><var>81</var>
              <quality>2.2393012419342995e-002</quality>
              <le>1.0648973083496094e+002</le></_></splits></_>
        <_>
          <depth>4</depth>
          <value>-3.3839241783576352e-004</value></_>
        <_>
          <depth>4</depth>
          <value>1.1927331881650778e+000</value></_>
        <_>
          <depth>2</depth>
          <value>-3.8799674093864828e-001</value>
          <splits>
            <_><var>87</var>
              <quality>3.6138854920864105e-002</quality>
              <le>8.7605072021484375e+001</le></_></splits></_>
        <_>
          <depth>3</depth>
          <value>7.8407108697305702e-002</value>
          <splits>
            <_><var>95</var>
              <quality>8.4497816860675812e-003</quality>
              <le>5.2666664123535156e+001</le></_></splits></_>
        <_>
          <depth>4</depth>
          <value>-9.0258216001558267e-001</value></_>
        <_>
          <depth>4</depth>
          <value>3.0909407950807327e-001</value></_>
        <_>
          <depth>3</depth>
          <value>-5.1150664937519708e-001</value>
          <splits>
            <_><var>48</var>
              <quality>4.1433956474065781e-002</quality>
              <le>1.3591317749023437e+002</le></_></splits></_>
        <_>
          <depth>4</depth>
          <value>-5.5250382036255175e-001</value></_>
        <_>
          <depth>4</depth>
          <value>4.6910090039508717e-001</value></_>
        <_>
          <depth>1</depth>
          <value>1.0105458308147310e-001</value>
          <splits>
            <_><var>86</var>
              <quality>2.3221990093588829e-002</quality>
              <le>1.4741667175292969e+002</le></_></splits></_>
        <_>
          <depth>2</depth>
          <value>6.7847029106682583e-002</value>
          <splits>
            <_><var>98</var>
              <quality>2.0231112837791443e-002</quality>
              <le>1.3517858886718750e+002</le></_></splits></_>
        <_>
          <depth>3</depth>
          <value>1.4358786389314238e-001</value>
          <splits>
            <_><var>22</var>
              <quality>3.7986639887094498e-002</quality>
              <le>4.5381576538085938e+001</le></_></splits></_>
        <_>
          <depth>4</depth>
          <value>-5.0114839691136592e-001</value></_>
        <_>
          <depth>4</depth>
          <value>2.2790970598426283e-001</value></_>
        <_>
          <depth>3</depth>
          <value>-3.1073184072470983e-001</value>
          <splits>
            <_><var>1</var>
              <quality>3.8789078593254089e-002</quality>
              <le>3.7193660736083984e+001</le></_></splits></_>
        <_>
          <depth>4</depth>
          <value>9.4325604176435840e-001</value></_>
        <_>
          <depth>4</depth>
          <value>-5.3892617261031162e-001</value></_>
        <_>
          <depth>2</depth>
          <value>8.9774713077287882e-001</value>
          <splits>
            <_><var>10</var>
              <quality>3.4656777977943420e-002</quality>
              <le>9.3646148681640625e+001</le></_></splits></_>
        <_>
          <depth>3</depth>
          <value>1.2395310704590607e+000</value>
          <splits>
            <_><var>66</var>
              <quality>3.7691127508878708e-002</quality>
              <le>1.1690661621093750e+002</le></_></splits></_>
        <_>
          <depth>4</depth>
          <value>1.6570880801884522e+000</value></_>
        <_>
          <depth>4</depth>
          <value>6.1621267387532919e-001</value></_>
        <_>
          <depth>3</depth>
          <value>-7.4562250545442210e-001</value>
          <splits>
            <_><var>20</var>
              <quality>1.0010117664933205e-002</quality>
              <le>1.3180932617187500e+002</le></_></splits></_>
        <_>
          <depth>4</depth>
          <value>6.8201626448713437e-001</value></_>
        <_>
          <depth>4</depth>
          <value>-1.9633011031619949e+000</value></_></nodes></_>
    <_>
      <nodes>
        <_>
          <depth>0</depth>
          <value>1.2535150864848953e-002</value>
          <splits>
            <_><var>27</var>
              <quality>1.2090008705854416e-002</quality>
              <le>1.6585092163085937e+002</le></_></splits></_>
        <_>
          <depth>1</depth>
          <value>2.7894643455103361e-002</value>
          <splits>
            <_><var>2</var>
              <quality>1.0845807380974293e-002</quality>
              <le>3.1052816390991211e+001</le></_></splits></_>
        <_>
          <depth>2</depth>
          <value>-3.7295172736918542e-001</value>
          <splits>
            <_><var>54</var>
              <quality>3.0731946229934692e-002</quality>
              <le>9.0673080444335937e+001</le></_></splits></_>
        <_>
          <depth>3</depth>
          <value>-1.0965582273515246e+000</value>
          <splits>
            <_><var>0</var>
              <quality>3.7439987063407898e-002</quality>
              <le>1.3626377868652344e+002</le></_></splits></_>
        <_>
          <depth>4</depth>
          <value>-1.2576394413407446e+000</value></_>
        <_>
          <depth>4</depth>
          <value>7.8097975168133216e-001</value></_>
        <_>
          <depth>3</depth>
          <value>1.5467495619071758e-001</value>
          <splits>
            <_><var>9</var>
              <quality>1.0983004234731197e-002</quality>
              <le>7.4725204467773438e+001</le></_></splits></_>
        <_>
          <depth>4</depth>
          <value>-6.3421701905946914e-001</value></_>
        <_>
          <depth>4</depth>
          <value>5.3237924648099144e-001</value></_>
        <_>
          <depth>2</depth>
          <value>5.4938440690596460e-002</value>
          <splits>
            <_><var>63</var>
              <quality>1.7586722970008850e-002</quality>
              <le>8.6379409790039063e+001</le></_></splits></_>
        <_>
          <depth>3</depth>
          <value>3.0718326887961611e-001</value>
          <splits>
            <_><var>22</var>
              <quality>5.6391127407550812e-002</quality>
              <le>5.1223686218261719e+001</le></_></splits></_>
        <_>
          <depth>4</depth>
          <value>-4.9057502049442486e-001</value></_>
        <_>
          <depth>4</depth>
          <value>5.7063115028277689e-001</value></_>
        <_>
          <depth>3</depth>
          <value>-1.2823163268427282e-002</value>
          <splits>
            <_><var>96</var>
              <quality>1.8367221578955650e-002</quality>
              <le>7.3186508178710937e+001</le></_></splits></_>
        <_>
          <depth>4</depth>
          <value>7.4558994109729237e-001</value></_>
        <_>
          <depth>4</depth>
          <value>-4.7739519618608998e-002</value></_>
        <_>
          <depth>1</depth>
          <value>-8.0489860581479189e-001</value>
          <splits>
            <_><var>98</var>
              <quality>3.4610275179147720e-002</quality>
              <le>1.2182143402099609e+002</le></_></splits></_>
        <_>
          <depth>2</depth>
          <value>-1.4426821167610571e+000</value>
          <splits>
            <_><var>60</var>
              <quality>4.4562805444002151e-002</quality>
              <le>1.0015229797363281e+002</le></_></splits></_>
        <_>
          <depth>3</depth>
          <value>1.1662499327095312e-001</value>
          <splits>
            <_><var>3</var>
              <quality>5.1209474913775921e-003</quality>
              <le>1.7503800964355469e+002</le></_></splits></_>
        <_>
          <depth>4</depth>
          <value>-1.2225700747747268e+000</value></_>
        <_>
          <depth>4</depth>
          <value>9.5050091503169021e-001</value></_>
        <_>
          <depth>3</depth>
          <value>-2.2372849746916024e+000</value>
          <splits>
            <_><var>51</var>
              <quality>5.9954851865768433e-002</quality>
              <le>1.2802957153320312e+002</le></_></splits></_>
        <_>
          <depth>4</depth>
          <value>-3.1290708232064777e+000</value></_>
        <_>
          <depth>4</depth>
          <value>-2.8814943040073110e-001</value></_>
        <_>
          <depth>2</depth>
          <value>1.2731287290090101e+000</value>
          <splits>
            <_><var>69</var>
              <quality>7.9928925260901451e-003</quality>
              <le>1.3950000000000000e+002</le></_></splits></_>
        <_>
          <depth>3</depth>
          <value>1.3671118900195200e+000</value>
          <splits>
            <_><var>48</var>
              <quality>8.1913648173213005e-003</quality>
              <le>8.6978950500488281e+001</le></_></splits></_>
        <_>
          <depth>4</depth>
          <value>-3.4119930580541036e-001</value></_>
        <_>
          <depth>4</depth>
          <value>1.4693003866767116e+000</value></_>
        <_>
          <depth>3</depth>
          <value>-2.1270457386550343e+000</value>
          <splits>
            <_><var>20</var>
              <quality>1.7356311436742544e-003</quality>
              <le>1.0157203674316406e+002</le></_></splits></_>
        <_>
          <depth>4</depth>
          <value>-5.7402018273825757e+000</value></_>
        <_>
          <depth>4</depth>
          <value>9.5642142709971156e-001</value></_></nodes></_>
    <_>
      <nodes>
        <_>
          <depth>0</depth>
          <value>2.1548249516644920e-002</value>
          <splits>
            <_><var>0</var>
              <quality>2.2252585738897324e-002</quality>
              <le>1.9306889343261719e+002</le></_></splits></_>
        <_>
          <depth>1</depth>
          <value>-1.4122840488636789e-004</value>
          <splits>
            <_><var>45</var>
              <quality>1.0358445346355438e-002</quality>
              <le>7.8079895019531250e+001</le></_></splits></_>
        <_>
          <depth>2</depth>
          <value>-2.0819129103444611e-001</value>
          <splits>
            <_><var>36</var>
              <quality>1.8309254199266434e-002</quality>
              <le>8.3466018676757813e+001</le></_></splits></_>
        <_>
          <depth>3</depth>
          <value>-2.8168159571585627e-001</value>
          <splits>
            <_><var>63</var>
              <quality>2.2946733981370926e-002</quality>
              <le>5.5191177368164063e+001</le></_></splits></_>
        <_>
          <depth>4</depth>
          <value>6.5779069924868427e-001</value></_>
        <_>
          <depth>4</depth>
          <value>-3.3864127317044979e-001</value></_>
        <_>
          <depth>3</depth>
          <value>5.1069535631627561e-001</value>
          <splits>
            <_><var>27</var>
              <quality>1.1360261589288712e-002</quality>
              <le>1.5168577575683594e+002</le></_></splits></_>
        <_>
          <depth>4</depth>
          <value>6.0245415737407093e-001</value></_>
        <_>
          <depth>4</depth>
          <value>-3.6588221328753150e+000</value></_>
        <_>
          <depth>2</depth>
          <value>5.3335775043607814e-002</value>
          <splits>
            <_><var>33</var>
              <quality>1.4600777067244053e-002</quality>
              <le>5.8171432495117188e+001</le></_></splits></_>
        <_>
          <depth>3</depth>
          <value>1.2149552765766640e+000</value>
          <splits>
            <_><var>0</var>
              <quality>1.5339506790041924e-002</quality>
              <le>2.7025588989257813e+001</le></_></splits></_>
        <_>
          <depth>4</depth>
          <value>-8.4985741086836808e-001</value></_>
        <_>
          <depth>4</depth>
          <value>1.3124409264346149e+000</value></_>
        <_>
          <depth>3</depth>
          <value>3.8813900786167657e-002</value>
          <splits>
            <_><var>96</var>
              <quality>1.1782078072428703e-002</quality>
              <le>1.5889286804199219e+002</le></_></splits></_>
        <_>
          <depth>4</depth>
          <value>2.5893879885294485e-002</value></_>
        <_>
          <depth>4</depth>
          <value>1.1688595475598762e+000</value></_>
        <_>
          <depth>1</depth>
          <value>1.0799890782521961e+000</value>
          <splits>
            <_><var>13</var>
              <quality>2.5434581562876701e-002</quality>
              <le>5.0230163574218750e+001</le></_></splits></_>
        <_>
          <depth>2</depth>
          <value>1.1821044325000403e-001</value>
          <splits>
            <_><var>69</var>
              <quality>7.0431055501103401e-003</quality>
              <le>1.1433332824707031e+002</le></_></splits></_>
        <_>
          <depth>3</depth>
          <value>1.6481906618661188e+000</value>
          <splits>
            <_><var>6</var>
              <quality>4.4188164174556732e-003</quality>
              <le>2.1096543884277344e+002</le></_></splits></_>
        <_>
          <depth>4</depth>
          <value>1.3132951616721962e+000</value></_>
        <_>
          <depth>4</depth>
          <value>2.4747623121326967e+000</value></_>
        <_>
          <depth>3</depth>
          <value>-1.4521614548230277e+000</value>
          <splits>
            <_><var>84</var>
              <quality>4.3317084200680256e-003</quality>
              <le>1.1911267089843750e+002</le></_></splits></_>
        <_>
          <depth>4</depth>
          <value>6.5074957441346049e-001</value></_>
        <_>
          <depth>4</depth>
          <value>-1.8815823401386707e+000</value></_>
        <_>
          <depth>2</depth>
          <value>1.2534037134528175e+000</value>
          <splits>
            <_><var>90</var>
              <quality>2.5895737111568451e-002</quality>
              <le>1.1222014617919922e+002</le></_></splits></_>
        <_>
          <depth>3</depth>
          <value>1.4273250816921781e+000</value>
          <splits>
            <_><var>0</var>
              <quality>1.6901593655347824e-002</quality>
              <le>2.0287203979492187e+002</le></_></splits></_>
        <_>
          <depth>4</depth>
          <value>1.5485327585020059e+000</value></_>
        <_>
          <depth>4</depth>
          <value>1.2041704159845132e+000</value></_>
        <_>
          <depth>3</depth>
          <value>1.0748777832216310e+000</value>
          <splits>
            <_><var>28</var>
              <quality>1.0221835225820541e-002</quality>
              <le>5.8047172546386719e+001</le></_></splits></_>
        <_>
          <depth>4</depth>
          <value>-2.0992296494075063e-001</value></_>
        <_>
          <depth>4</depth>
          <value>1.1730657048315487e+000</value></_></nodes></_>
    <_>
      <nodes>
        <_>
          <depth>0</depth>
          <value>6.1751212296318782e-003</value>
          <splits>
            <_><var>69</var>
              <quality>9.1210538521409035e-003</quality>
              <le>1.5505865478515625e+002</le></_></splits></_>
        <_>
          <depth>1</depth>
          <value>-4.1213974514473376e-003</value>
          <splits>
            <_><var>3</var>
              <quality>7.9562980681657791e-003</quality>
              <le>1.5667401123046875e+002</le></_></splits></_>
        <_>
          <depth>2</depth>
          <value>-3.3262405001700836e-002</value>
          <splits>
            <_><var>33</var>
              <quality>9.5599303022027016e-003</quality>
              <le>9.5388099670410156e+001</le></_></splits></_>
        <_>
          <depth>3</depth>
          <value>4.4722839533995050e-002</value>
          <splits>
            <_><var>54</var>
              <quality>2.6188876479864120e-002</quality>
              <le>1.0431044006347656e+002</le></_></splits></_>
        <_>
          <depth>4</depth>
          <value>-1.0417812243093497e-001</value></_>
        <_>
          <depth>4</depth>
          <value>3.6144429081484819e-001</value></_>
        <_>
          <depth>3</depth>
          <value>-1.6265132092654089e-001</value>
          <splits>
            <_><var>66</var>
              <quality>2.8538560494780540e-002</quality>
              <le>9.8093368530273438e+001</le></_></splits></_>
        <_>
          <depth>4</depth>
          <value>2.4928977093555157e-001</value></_>
        <_>
          <depth>4</depth>
          <value>-3.1419382308751431e-001</value></_>
        <_>
          <depth>2</depth>
          <value>2.8587238577106233e-001</value>
          <splits>
            <_><var>91</var>
              <quality>2.0391803234815598e-002</quality>
              <le>8.2977279663085938e+001</le></_></splits></_>
        <_>
          <depth>3</depth>
          <value>-2.4031381248622366e-001</value>
          <splits>
            <_><var>27</var>
              <quality>2.1319122985005379e-002</quality>
              <le>1.1813761138916016e+002</le></_></splits></_>
        <_>
          <depth>4</depth>
          <value>-1.4385019788527933e+000</value></_>
        <_>
          <depth>4</depth>
          <value>2.8705025422831365e-001</value></_>
        <_>
          <depth>3</depth>
          <value>5.8224993810240266e-001</value>
          <splits>
            <_><var>18</var>
              <quality>3.1925853341817856e-002</quality>
              <le>7.4691299438476562e+001</le></_></splits></_>
        <_>
          <depth>4</depth>
          <value>-3.0520029389450167e+000</value></_>
        <_>
          <depth>4</depth>
          <value>6.4902612880235755e-001</value></_>
        <_>
          <depth>1</depth>
          <value>9.3491093723218976e-001</value>
          <splits>
            <_><var>86</var>
              <quality>1.4098118990659714e-002</quality>
              <le>1.4883334350585937e+002</le></_></splits></_>
        <_>
          <depth>2</depth>
          <value>1.2307519740209636e+000</value>
          <splits>
            <_><var>54</var>
              <quality>1.5180584043264389e-002</quality>
              <le>1.2227198028564453e+002</le></_></splits></_>
        <_>
          <depth>3</depth>
          <value>2.0540906579294749e+000</value>
          <splits>
            <_><var>29</var>
              <quality>9.8628541454672813e-003</quality>
              <le>7.3820755004882813e+001</le></_></splits></_>
        <_>
          <depth>4</depth>
          <value>2.9915543506674345e+000</value></_>
        <_>
          <depth>4</depth>
          <value>1.4797064202796790e+000</value></_>
        <_>
          <depth>3</depth>
          <value>9.7735365200134827e-001</value>
          <splits>
            <_><var>1</var>
              <quality>7.9581364989280701e-003</quality>
              <le>3.4380279541015625e+001</le></_></splits></_>
        <_>
          <depth>4</depth>
          <value>-1.3599160758084641e+000</value></_>
        <_>
          <depth>4</depth>
          <value>1.0741698577168586e+000</value></_>
        <_>
          <depth>2</depth>
          <value>-6.8526210375057961e-001</value>
          <splits>
            <_><var>93</var>
              <quality>2.4050266947597265e-003</quality>
              <le>1.6341539001464844e+002</le></_></splits></_>
        <_>
          <depth>3</depth>
          <value>-1.1529324312539158e+000</value>
          <splits>
            <_><var>78</var>
              <quality>3.4368406049907207e-003</quality>
              <le>1.3455000305175781e+002</le></_></splits></_>
        <_>
          <depth>4</depth>
          <value>1.8970372059622798e+000</value></_>
        <_>
          <depth>4</depth>
          <value>-1.5670844097729968e+000</value></_>
        <_>
          <depth>3</depth>
          <value>1.5078943353299870e+000</value>
          <splits>
            <_><var>35</var>
              <quality>8.5556384874507785e-004</quality>
              <le>7.1392852783203125e+001</le></_></splits></_>
        <_>
          <depth>4</depth>
          <value>7.7263018520703710e+000</value></_>
        <_>
          <depth>4</depth>
          <value>1.3868586547727888e+000</value></_></nodes></_>
    <_>
      <nodes>
        <_>
          <depth>0</depth>
          <value>4.2560538721305588e-003</value>
          <splits>
            <_><var>80</var>
              <quality>8.8363764807581902e-003</quality>
              <le>1.0301315307617187e+002</le></_></splits></_>
        <_>
          <depth>1</depth>
          <value>-7.1792984767763884e-002</value>
          <splits>
            <_><var>98</var>
              <quality>1.9403329119086266e-002</quality>
              <le>1.1332143402099609e+002</le></_></splits></_>
        <_>
          <depth>2</depth>
          <value>1.0660342300503703e-002</value>
          <splits>
            <_><var>27</var>
              <quality>1.6377035528421402e-002</quality>
              <le>1.5132797241210937e+002</le></_></splits></_>
        <_>
          <depth>3</depth>
          <value>6.0718432310959525e-002</value>
          <splits>
            <_><var>89</var>
              <quality>1.2654909864068031e-002</quality>
              <le>9.3173080444335938e+001</le></_></splits></_>
        <_>
          <depth>4</depth>
          <value>-3.4725254434612038e-002</value></_>
        <_>
          <depth>4</depth>
          <value>3.2395698313090515e-001</value></_>
        <_>
          <depth>3</depth>
          <value>-6.8168738561087505e-001</value>
          <splits>
            <_><var>48</var>
              <quality>3.3575907349586487e-002</quality>
              <le>1.1467369079589844e+002</le></_></splits></_>
        <_>
          <depth>4</depth>
          <value>-1.5483775114514815e+000</value></_>
        <_>
          <depth>4</depth>
          <value>2.0143468692652364e-003</value></_>
        <_>
          <depth>2</depth>
          <value>-4.1128163395614897e-001</value>
          <splits>
            <_><var>96</var>
              <quality>4.1002590209245682e-002</quality>
              <le>9.8646835327148438e+001</le></_></splits></_>
        <_>
          <depth>3</depth>
          <value>-1.0367640135488136e+000</value>
          <splits>
            <_><var>82</var>
              <quality>5.5777743458747864e-002</quality>
              <le>9.8720588684082031e+001</le></_></splits></_>
        <_>
          <depth>4</depth>
          <value>-1.3321356062278631e+000</value></_>
        <_>
          <depth>4</depth>
          <value>3.8695619323540187e-001</value></_>
        <_>
          <depth>3</depth>
          <value>-1.0865946848526695e-001</value>
          <splits>
            <_><var>74</var>
              <quality>1.3357411138713360e-002</quality>
              <le>6.3402175903320313e+001</le></_></splits></_>
        <_>
          <depth>4</depth>
          <value>1.4886852281338285e+000</value></_>
        <_>
          <depth>4</depth>
          <value>-2.0973737570392101e-001</value></_>
        <_>
          <depth>1</depth>
          <value>1.2631012970647174e-001</value>
          <splits>
            <_><var>98</var>
              <quality>2.1935684606432915e-002</quality>
              <le>1.5446429443359375e+002</le></_></splits></_>
        <_>
          <depth>2</depth>
          <value>2.1445454856131507e-001</value>
          <splits>
            <_><var>59</var>
              <quality>2.4033270776271820e-002</quality>
              <le>1.6438636779785156e+002</le></_></splits></_>
        <_>
          <depth>3</depth>
          <value>2.3314807557695960e-001</value>
          <splits>
            <_><var>60</var>
              <quality>2.9153591021895409e-002</quality>
              <le>9.0020111083984375e+001</le></_></splits></_>
        <_>
          <depth>4</depth>
          <value>6.0401865287409362e-001</value></_>
        <_>
          <depth>4</depth>
          <value>1.2348971338226503e-001</value></_>
        <_>
          <depth>3</depth>
          <value>-1.4699045441994898e+000</value>
          <splits>
            <_><var>90</var>
              <quality>9.7591914236545563e-003</quality>
              <le>8.4679100036621094e+001</le></_></splits></_>
        <_>
          <depth>4</depth>
          <value>-1.6973304320235321e+000</value></_>
        <_>
          <depth>4</depth>
          <value>1.6327378769203422e+000</value></_>
        <_>
          <depth>2</depth>
          <value>-3.7498403506211436e-001</value>
          <splits>
            <_><var>68</var>
              <quality>2.1612154319882393e-002</quality>
              <le>1.5578704833984375e+002</le></_></splits></_>
        <_>
          <depth>3</depth>
          <value>-5.6103709350714226e-001</value>
          <splits>
            <_><var>21</var>
              <quality>2.8232477605342865e-002</quality>
              <le>6.6285400390625000e+001</le></_></splits></_>
        <_>
          <depth>4</depth>
          <value>-1.3320481073947956e+000</value></_>
        <_>
          <depth>4</depth>
          <value>-2.0702397256445579e-001</value></_>
        <_>
          <depth>3</depth>
          <value>9.9896035236549385e-001</value>
          <splits>
            <_><var>84</var>
              <quality>1.1477513238787651e-002</quality>
              <le>1.1372183227539062e+002</le></_></splits></_>
        <_>
          <depth>4</depth>
          <value>2.1612607179708649e+000</value></_>
        <_>
          <depth>4</depth>
          <value>3.3951922882767338e-001</value></_></nodes></_>
    <_>
      <nodes>
        <_>
          <depth>0</depth>
          <value>6.7993215603977795e-004</value>
          <splits>
            <_><var>6</var>
              <quality>1.3052336871623993e-002</quality>
              <le>1.3726625061035156e+002</le></_></splits></_>
        <_>
          <depth>1</depth>
          <value>-4.4104847119667522e-002</value>
          <splits>
            <_><var>97</var>
              <quality>9.8801599815487862e-003</quality>
              <le>6.3964286804199219e+001</le></_></splits></_>
        <_>
          <depth>2</depth>
          <value>2.1159859385882168e-001</value>
          <splits>
            <_><var>90</var>
              <quality>3.0643409118056297e-002</quality>
              <le>8.0302238464355469e+001</le></_></splits></_>
        <_>
          <depth>3</depth>
          <value>-4.3367248198942066e-001</value>
          <splits>
            <_><var>3</var>
              <quality>1.7092019319534302e-002</quality>
              <le>5.4398002624511719e+001</le></_></splits></_>
        <_>
          <depth>4</depth>
          <value>5.0517734946850323e-001</value></_>
        <_>
          <depth>4</depth>
          <value>-6.9388110169040518e-001</value></_>
        <_>
          <depth>3</depth>
          <value>5.7506555498716083e-001</value>
          <splits>
            <_><var>0</var>
              <quality>3.2756734639406204e-002</quality>
              <le>4.6793308258056641e+001</le></_></splits></_>
        <_>
          <depth>4</depth>
          <value>-4.6752366153682379e-001</value></_>
        <_>
          <depth>4</depth>
          <value>7.0555742039129488e-001</value></_>
        <_>
          <depth>2</depth>
          <value>-8.3106820151394645e-002</value>
          <splits>
            <_><var>78</var>
              <quality>1.9980432465672493e-002</quality>
              <le>7.6476669311523438e+001</le></_></splits></_>
        <_>
          <depth>3</depth>
          <value>4.8908882810316451e-001</value>
          <splits>
            <_><var>14</var>
              <quality>2.0930932834744453e-002</quality>
              <le>5.5797622680664063e+001</le></_></splits></_>
        <_>
          <depth>4</depth>
          <value>-3.5364252818160163e-001</value></_>
        <_>
          <depth>4</depth>
          <value>7.8144153180743980e-001</value></_>
        <_>
          <depth>3</depth>
          <value>-1.1958269794203476e-001</value>
          <splits>
            <_><var>81</var>
              <quality>2.1842891350388527e-002</quality>
              <le>1.1883904266357422e+002</le></_></splits></_>
        <_>
          <depth>4</depth>
          <value>-2.1324203033493652e-001</value></_>
        <_>
          <depth>4</depth>
          <value>7.2637415263365396e-002</value></_>
        <_>
          <depth>1</depth>
          <value>3.0744671361921633e-001</value>
          <splits>
            <_><var>97</var>
              <quality>2.1650783717632294e-002</quality>
              <le>1.1246429443359375e+002</le></_></splits></_>
        <_>
          <depth>2</depth>
          <value>1.2534578730468976e-001</value>
          <splits>
            <_><var>7</var>
              <quality>8.8340770453214645e-003</quality>
              <le>3.5145523071289062e+001</le></_></splits></_>
        <_>
          <depth>3</depth>
          <value>1.1619723835520681e+000</value>
          <splits>
            <_><var>67</var>
              <quality>1.0119318962097168e-002</quality>
              <le>8.1416671752929688e+001</le></_></splits></_>
        <_>
          <depth>4</depth>
          <value>1.3519244496933669e+000</value></_>
        <_>
          <depth>4</depth>
          <value>-7.7369876450092299e-003</value></_>
        <_>
          <depth>3</depth>
          <value>4.2412324478766118e-002</value>
          <splits>
            <_><var>22</var>
              <quality>1.0523490607738495e-002</quality>
              <le>6.9942985534667969e+001</le></_></splits></_>
        <_>
          <depth>4</depth>
          <value>-2.0501095481012441e-001</value></_>
        <_>
          <depth>4</depth>
          <value>5.6386711167430925e-001</value></_>
        <_>
          <depth>2</depth>
          <value>7.7076759519504512e-001</value>
          <splits>
            <_><var>84</var>
              <quality>2.3714883252978325e-002</quality>
              <le>1.0461619567871094e+002</le></_></splits></_>
        <_>
          <depth>3</depth>
          <value>1.1021999049289439e+000</value>
          <splits>
            <_><var>60</var>
              <quality>2.0614372566342354e-002</quality>
              <le>1.1095977020263672e+002</le></_></splits></_>
        <_>
          <depth>4</depth>
          <value>9.4157480742592126e-001</value></_>
        <_>
          <depth>4</depth>
          <value>1.4086194389488804e+000</value></_>
        <_>
          <depth>3</depth>
          <value>4.6776871948241844e-001</value>
          <splits>
            <_><var>33</var>
              <quality>9.3641113489866257e-003</quality>
              <le>9.4978576660156250e+001</le></_></splits></_>
        <_>
          <depth>4</depth>
          <value>-1.0392311051354024e+000</value></_>
        <_>
          <depth>4</depth>
          <value>6.7091045534958260e-001</value></_></nodes></_>
    <_>
      <nodes>
        <_>
          <depth>0</depth>
          <value>2.8423082427086522e-003</value>
          <splits>
            <_><var>89</var>
              <quality>1.0298829525709152e-002</quality>
              <le>4.4480770111083984e+001</le></_></splits></_>
        <_>
          <depth>1</depth>
          <value>7.0863465236361778e-001</value>
          <splits>
            <_><var>72</var>
              <quality>1.9786676391959190e-002</quality>
              <le>6.6436706542968750e+001</le></_></splits></_>
        <_>
          <depth>2</depth>
          <value>-6.3307243399585300e-001</value>
          <splits>
            <_><var>96</var>
              <quality>5.4653147235512733e-003</quality>
              <le>7.6373016357421875e+001</le></_></splits></_>
        <_>
          <depth>3</depth>
          <value>-9.5962926704899210e-001</value>
          <splits>
            <_><var>66</var>
              <quality>4.1472907178103924e-003</quality>
              <le>9.8433731079101563e+001</le></_></splits></_>
        <_>
          <depth>4</depth>
          <value>-9.8885425105636637e-001</value></_>
        <_>
          <depth>4</depth>
          <value>5.0818958671178400e+000</value></_>
        <_>
          <depth>3</depth>
          <value>2.0948729335374057e+000</value>
          <splits>
            <_><var>87</var>
              <quality>2.4948858190327883e-003</quality>
              <le>5.5666667938232422e+001</le></_></splits></_>
        <_>
          <depth>4</depth>
          <value>8.4648765998742039e+000</value></_>
        <_>
          <depth>4</depth>
          <value>1.9180213075873740e+000</value></_>
        <_>
          <depth>2</depth>
          <value>1.0637330846488640e+000</value>
          <splits>
            <_><var>30</var>
              <quality>2.0344454795122147e-002</quality>
              <le>5.0787384033203125e+001</le></_></splits></_>
        <_>
          <depth>3</depth>
          <value>2.8474420100434137e+000</value>
          <splits>
            <_><var>7</var>
              <quality>7.8572966158390045e-003</quality>
              <le>5.3126861572265625e+001</le></_></splits></_>
        <_>
          <depth>4</depth>
          <value>-8.6148320477790730e-001</value></_>
        <_>
          <depth>4</depth>
          <value>3.7846956377807826e+000</value></_>
        <_>
          <depth>3</depth>
          <value>9.8470746263599562e-001</value>
          <splits>
            <_><var>91</var>
              <quality>1.7034633085131645e-002</quality>
              <le>5.8431819915771484e+001</le></_></splits></_>
        <_>
          <depth>4</depth>
          <value>1.6189140724697608e+000</value></_>
        <_>
          <depth>4</depth>
          <value>7.5919286576748379e-001</value></_>
        <_>
          <depth>1</depth>
          <value>-1.2506085573279599e-002</value>
          <splits>
            <_><var>0</var>
              <quality>1.0590973310172558e-002</quality>
              <le>7.3431098937988281e+001</le></_></splits></_>
        <_>
          <depth>2</depth>
          <value>-1.6358534845533024e-001</value>
          <splits>
            <_><var>1</var>
              <quality>1.8809232860803604e-002</quality>
              <le>3.7102111816406250e+001</le></_></splits></_>
        <_>
          <depth>3</depth>
          <value>-6.7212372053669056e-001</value>
          <splits>
            <_><var>97</var>
              <quality>2.4172659963369370e-002</quality>
              <le>4.4678573608398438e+001</le></_></splits></_>
        <_>
          <depth>4</depth>
          <value>9.3739873688803710e-001</value></_>
        <_>
          <depth>4</depth>
          <value>-8.0675430646148272e-001</value></_>
        <_>
          <depth>3</depth>
          <value>-9.5605675120787659e-002</value>
          <splits>
            <_><var>66</var>
              <quality>1.3122312724590302e-002</quality>
              <le>1.1054518127441406e+002</le></_></splits></_>
        <_>
          <depth>4</depth>
          <value>-2.7390131254900679e-001</value></_>
        <_>
          <depth>4</depth>
          <value>1.2518809801160771e-001</value></_>
        <_>
          <depth>2</depth>
          <value>6.1854957208232371e-002</value>
          <splits>
            <_><var>69</var>
              <quality>2.1377254277467728e-002</quality>
              <le>1.0504013061523437e+002</le></_></splits></_>
        <_>
          <depth>3</depth>
          <value>2.5281159176453738e-001</value>
          <splits>
            <_><var>5</var>
              <quality>3.4808702766895294e-002</quality>
              <le>5.8568840026855469e+001</le></_></splits></_>
        <_>
          <depth>4</depth>
          <value>1.7571742113127380e-002</value></_>
        <_>
          <depth>4</depth>
          <value>5.0267719741534156e-001</value></_>
        <_>
          <depth>3</depth>
          <value>-9.7773595484719547e-002</value>
          <splits>
            <_><var>15</var>
              <quality>1.9753942266106606e-002</quality>
              <le>7.9173080444335938e+001</le></_></splits></_>
        <_>
          <depth>4</depth>
          <value>4.0125981672497030e-001</value></_>
        <_>
          <depth>4</depth>
          <value>-1.9525212195415370e-001</value></_></nodes></_>
    <_>
      <nodes>
        <_>
          <depth>0</depth>
          <value>-8.8219263350946524e-003</value>
          <splits>
            <_><var>1</var>
              <quality>9.2268185690045357e-003</quality>
              <le>1.4068661499023437e+002</le></_></splits></_>
        <_>
          <depth>1</depth>
          <value>-3.4458145823894116e-003</value>
          <splits>
            <_><var>73</var>
              <quality>1.0323613882064819e-002</quality>
              <le>1.4959783935546875e+002</le></_></splits></_>
        <_>
          <depth>2</depth>
          <value>-1.7656088693448150e-002</value>
          <splits>
            <_><var>87</var>
              <quality>7.0106210187077522e-003</quality>
              <le>1.5586593627929687e+002</le></_></splits></_>
        <_>
          <depth>3</depth>
          <value>-2.4928371122781588e-002</value>
          <splits>
            <_><var>98</var>
              <quality>6.1864820308983326e-003</quality>
              <le>2.0182144165039062e+002</le></_></splits></_>
        <_>
          <depth>4</depth>
          <value>-2.7411385502079388e-002</value></_>
        <_>
          <depth>4</depth>
          <value>2.4237115890798657e+000</value></_>
        <_>
          <depth>3</depth>
          <value>9.7615372548509172e-001</value>
          <splits>
            <_><var>75</var>
              <quality>8.6750863119959831e-003</quality>
              <le>1.4537011718750000e+002</le></_></splits></_>
        <_>
          <depth>4</depth>
          <value>1.4305045738137099e+000</value></_>
        <_>
          <depth>4</depth>
          <value>2.4694503618595232e-001</value></_>
        <_>
          <depth>2</depth>
          <value>7.6273695388928364e-001</value>
          <splits>
            <_><var>11</var>
              <quality>1.4703993685543537e-002</quality>
              <le>7.7238464355468750e+001</le></_></splits></_>
        <_>
          <depth>3</depth>
          <value>9.6751297617329934e-001</value>
          <splits>
            <_><var>30</var>
              <quality>1.7276298254728317e-002</quality>
              <le>6.6004669189453125e+001</le></_></splits></_>
        <_>
          <depth>4</depth>
          <value>1.6815435375539323e+000</value></_>
        <_>
          <depth>4</depth>
          <value>6.5836750797279964e-001</value></_>
        <_>
          <depth>3</depth>
          <value>-5.5962426139414889e-001</value>
          <splits>
            <_><var>42</var>
              <quality>3.6491288337856531e-003</quality>
              <le>1.0237878417968750e+002</le></_></splits></_>
        <_>
          <depth>4</depth>
          <value>6.8171014584767531e-001</value></_>
        <_>
          <depth>4</depth>
          <value>-1.5784523261005989e+000</value></_>
        <_>
          <depth>1</depth>
          <value>-1.8009340700286645e+000</value>
          <splits>
            <_><var>39</var>
              <quality>1.1622169055044651e-002</quality>
              <le>1.1042079162597656e+002</le></_></splits></_>
        <_>
          <depth>2</depth>
          <value>-1.4369994849693668e+000</value>
          <splits>
            <_><var>85</var>
              <quality>7.1024419739842415e-003</quality>
              <le>1.5410000610351562e+002</le></_></splits></_>
        <_>
          <depth>3</depth>
          <value>-1.7794165825997954e+000</value>
          <splits>
            <_><var>0</var>
              <quality>7.6089203357696533e-003</quality>
              <le>8.5822830200195313e+001</le></_></splits></_>
        <_>
          <depth>4</depth>
          <value>-1.8958353544762001e+000</value></_>
        <_>
          <depth>4</depth>
          <value>1.3999848799673018e+000</value></_>
        <_>
          <depth>3</depth>
          <value>9.7403591659882538e-001</value>
          <splits>
            <_><var>0</var>
              <quality>7.5183319859206676e-004</quality>
              <le>5.0543308258056641e+001</le></_></splits></_>
        <_>
          <depth>4</depth>
          <value>-10.</value></_>
        <_>
